<?xml version="1.0"?>
<opencv_storage>
<cascade>
  <stageType>BOOST</stageType>
  <featureType>HAAR</featureType>
  <height>20</height>
  <width>20</width>
  <stageParams>
    <boostType>GAB</boostType>
    <minHitRate>9.9500000476837158e-01</minHitRate>
    <maxFalseAlarm>5.0000000000000000e-01</maxFalseAlarm>
    <weightTrimRate>9.4999999999999996e-01</weightTrimRate>
    <maxDepth>1</maxDepth>
    <maxWeakCount>100</maxWeakCount></stageParams>
  <featureParams>
    <maxCatCount>0</maxCatCount>
    <featSize>1</featSize>
    <mode>BASIC</mode></featureParams>
  <stageNum>10</stageNum>
  <stages>
    <!-- stage 0 -->
    <_>
      <maxWeakCount>5</maxWeakCount>
      <stageThreshold>-1.3962048292160034e+00</stageThreshold>
      <weakClassifiers>
        <_>
          <internalNodes>
            0 -1 23 7.2320904582738876e-03</internalNodes>
          <leafValues>
            -4.7368422150611877e-01 8.4290027618408203e-01</leafValues></_>
        <_>
          <internalNodes>
            0 -1 36 3.2411657273769379e-02</internalNodes>
          <leafValues>
            -6.2799632549285889e-01 7.1223920583724976e-01</leafValues></_>
        <_>
          <internalNodes>
            0 -1 68 3.2896049320697784e-02</internalNodes>
          <leafValues>
            -5.9336638450622559e-01 6.4239740371704102e-01</leafValues></_>
        <_>
          <internalNodes>
            0 -1 57 8.1694209948182106e-03</internalNodes>
          <leafValues>
            -3.9924895763397217e-01 8.2752972841262817e-01</leafValues></_>
        <_>
          <internalNodes>
            0 -1 11 -7.9646687954664230e-03</internalNodes>
          <leafValues>
            6.9809108972549438e-01 -5.6374752521514893e-01</leafValues></_></weakClassifiers></_>
    <!-- stage 1 -->
    <_>
      <maxWeakCount>5</maxWeakCount>
      <stageThreshold>-1.1932548284530640e+00</stageThreshold>
      <weakClassifiers>
        <_>
          <internalNodes>
            0 -1 73 -2.2448439151048660e-02</internalNodes>
          <leafValues>
            7.6074969768524170e-01 -5.4176074266433716e-01</leafValues></_>
        <_>
          <internalNodes>
            0 -1 3 2.3728389292955399e-02</internalNodes>
          <leafValues>
            -5.2837914228439331e-01 6.7076218128204346e-01</leafValues></_>
        <_>
          <internalNodes>
            0 -1 30 1.1403794400393963e-02</internalNodes>
          <leafValues>
            -4.4870665669441223e-01 7.0725560188293457e-01</leafValues></_>
        <_>
          <internalNodes>
            0 -1 40 -1.2336915358901024e-02</internalNodes>
          <leafValues>
            7.3012274503707886e-01 -4.6650132536888123e-01</leafValues></_>
        <_>
          <internalNodes>
            0 -1 47 -9.3845361843705177e-03</internalNodes>
          <leafValues>
            7.4297958612442017e-01 -4.0453103184700012e-01</leafValues></_></weakClassifiers></_>
    <!-- stage 2 -->
    <_>
      <maxWeakCount>6</maxWeakCount>
      <stageThreshold>-6.5473794937133789e-01</stageThreshold>
      <weakClassifiers>
        <_>
          <internalNodes>
            0 -1 16 1.2333053164184093e-02</internalNodes>
          <leafValues>
            -2.9010239243507385e-01 8.1151831150054932e-01</leafValues></_>
        <_>
          <internalNodes>
            0 -1 45 4.0012225508689880e-02</internalNodes>
          <leafValues>
            -5.2481800317764282e-01 5.6853204965591431e-01</leafValues></_>
        <_>
          <internalNodes>
            0 -1 46 1.1170204728841782e-02</internalNodes>
          <leafValues>
            -3.5780605673789978e-01 7.0677000284194946e-01</leafValues></_>
        <_>
          <internalNodes>
            0 -1 67 3.8730084896087646e-02</internalNodes>
          <leafValues>
            -5.4307526350021362e-01 4.5924520492553711e-01</leafValues></_>
        <_>
          <internalNodes>
            0 -1 27 2.3346329107880592e-03</internalNodes>
          <leafValues>
            -5.0653737783432007e-01 4.8189195990562439e-01</leafValues></_>
        <_>
          <internalNodes>
            0 -1 2 4.6645842492580414e-02</internalNodes>
          <leafValues>
            -4.2314866185188293e-01 6.1366546154022217e-01</leafValues></_></weakClassifiers></_>
    <!-- stage 3 -->
    <_>
      <maxWeakCount>7</maxWeakCount>
      <stageThreshold>-7.6899623870849609e-01</stageThreshold>
      <weakClassifiers>
        <_>
          <internalNodes>
            0 -1 31 1.3830490410327911e-02</internalNodes>
          <leafValues>
            -2.0640268921852112e-01 7.5677460432052612e-01</leafValues></_>
        <_>
          <internalNodes>
            0 -1 20 4.9568496644496918e-02</internalNodes>
          <leafValues>
            -5.2013880014419556e-01 5.3884643316268921e-01</leafValues></_>
        <_>
          <internalNodes>
            0 -1 33 2.4986693169921637e-03</internalNodes>
          <leafValues>
            -4.5645144581794739e-01 5.4769802093505859e-01</leafValues></_>
        <_>
          <internalNodes>
            0 -1 38 -1.2551194056868553e-02</internalNodes>
          <leafValues>
            5.9140557050704956e-01 -4.3211171030998230e-01</leafValues></_>
        <_>
          <internalNodes>
            0 -1 18 1.1923613026738167e-02</internalNodes>
          <leafValues>
            -3.4632098674774170e-01 6.6496527194976807e-01</leafValues></_>
        <_>
          <internalNodes>
            0 -1 50 3.0239259824156761e-02</internalNodes>
          <leafValues>
            -4.5293012261390686e-01 5.0214272737503052e-01</leafValues></_>
        <_>
          <internalNodes>
            0 -1 49 -2.2422417998313904e-02</internalNodes>
          <leafValues>
            8.2868540287017822e-01 -3.1386280059814453e-01</leafValues></_></weakClassifiers></_>
    <!-- stage 4 -->
    <_>
      <maxWeakCount>8</maxWeakCount>
      <stageThreshold>-8.6524355411529541e-01</stageThreshold>
      <weakClassifiers>
        <_>
          <internalNodes>
            0 -1 7 3.6663778126239777e-02</internalNodes>
          <leafValues>
            -2.6711669564247131e-01 7.0775705575942993e-01</leafValues></_>
        <_>
          <internalNodes>
            0 -1 72 -4.3157827109098434e-02</internalNodes>
          <leafValues>
            5.9171599149703979e-01 -4.3268886208534241e-01</leafValues></_>
        <_>
          <internalNodes>
            0 -1 24 -9.4453468918800354e-03</internalNodes>
          <leafValues>
            3.6763662099838257e-01 -5.5771458148956299e-01</leafValues></_>
        <_>
          <internalNodes>
            0 -1 56 9.4623276963829994e-03</internalNodes>
          <leafValues>
            -3.0932262539863586e-01 6.9057673215866089e-01</leafValues></_>
        <_>
          <internalNodes>
            0 -1 51 2.4438928812742233e-02</internalNodes>
          <leafValues>
            -3.6466929316520691e-01 5.6908732652664185e-01</leafValues></_>
        <_>
          <internalNodes>
            0 -1 52 -6.4037386327981949e-03</internalNodes>
          <leafValues>
            7.5795608758926392e-01 -2.7308431267738342e-01</leafValues></_>
        <_>
          <internalNodes>
            0 -1 17 -2.0900897681713104e-02</internalNodes>
          <leafValues>
            7.1026080846786499e-01 -2.5168123841285706e-01</leafValues></_>
        <_>
          <internalNodes>
            0 -1 44 -1.8502037972211838e-02</internalNodes>
          <leafValues>
            6.6280102729797363e-01 -2.9625922441482544e-01</leafValues></_></weakClassifiers></_>
    <!-- stage 5 -->
    <_>
      <maxWeakCount>7</maxWeakCount>
      <stageThreshold>-1.2623881101608276e+00</stageThreshold>
      <weakClassifiers>
        <_>
          <internalNodes>
            0 -1 31 7.5094327330589294e-03</internalNodes>
          <leafValues>
            -3.1306305527687073e-01 6.5011036396026611e-01</leafValues></_>
        <_>
          <internalNodes>
            0 -1 0 3.3457618206739426e-02</internalNodes>
          <leafValues>
            -4.8739206790924072e-01 4.4609647989273071e-01</leafValues></_>
        <_>
          <internalNodes>
            0 -1 59 9.2719262465834618e-03</internalNodes>
          <leafValues>
            -5.5425107479095459e-01 3.6117553710937500e-01</leafValues></_>
        <_>
          <internalNodes>
            0 -1 54 1.7482629045844078e-02</internalNodes>
          <leafValues>
            -3.0939537286758423e-01 6.4808344841003418e-01</leafValues></_>
        <_>
          <internalNodes>
            0 -1 64 1.1645575985312462e-02</internalNodes>
          <leafValues>
            -4.5587831735610962e-01 5.4925781488418579e-01</leafValues></_>
        <_>
          <internalNodes>
            0 -1 65 1.9125001505017281e-02</internalNodes>
          <leafValues>
            2.6690933108329773e-01 -7.9279309511184692e-01</leafValues></_>
        <_>
          <internalNodes>
            0 -1 10 -9.6743404865264893e-03</internalNodes>
          <leafValues>
            4.6430790424346924e-01 -4.1445377469062805e-01</leafValues></_></weakClassifiers></_>
    <!-- stage 6 -->
    <_>
      <maxWeakCount>8</maxWeakCount>
      <stageThreshold>-7.8536289930343628e-01</stageThreshold>
      <weakClassifiers>
        <_>
          <internalNodes>
            0 -1 71 -4.3117292225360870e-02</internalNodes>
          <leafValues>
            6.9275361299514771e-01 -3.0256411433219910e-01</leafValues></_>
        <_>
          <internalNodes>
            0 -1 12 1.8390486948192120e-03</internalNodes>
          <leafValues>
            -3.7918481230735779e-01 5.5944836139678955e-01</leafValues></_>
        <_>
          <internalNodes>
            0 -1 13 -3.3072445541620255e-02</internalNodes>
          <leafValues>
            4.4223445653915405e-01 -3.8240104913711548e-01</leafValues></_>
        <_>
          <internalNodes>
            0 -1 32 2.8650332242250443e-03</internalNodes>
          <leafValues>
            -4.1627964377403259e-01 4.3825531005859375e-01</leafValues></_>
        <_>
          <internalNodes>
            0 -1 70 7.6016420498490334e-03</internalNodes>
          <leafValues>
            -3.9634397625923157e-01 4.9536752700805664e-01</leafValues></_>
        <_>
          <internalNodes>
            0 -1 62 1.0973241180181503e-02</internalNodes>
          <leafValues>
            2.3381608724594116e-01 -8.1351995468139648e-01</leafValues></_>
        <_>
          <internalNodes>
            0 -1 29 -9.5900297164916992e-03</internalNodes>
          <leafValues>
            6.6794461011886597e-01 -2.9403278231620789e-01</leafValues></_>
        <_>
          <internalNodes>
            0 -1 58 -1.9004428759217262e-03</internalNodes>
          <leafValues>
            4.8974341154098511e-01 -3.7191852927207947e-01</leafValues></_></weakClassifiers></_>
    <!-- stage 7 -->
    <_>
      <maxWeakCount>10</maxWeakCount>
      <stageThreshold>-7.2834241390228271e-01</stageThreshold>
      <weakClassifiers>
        <_>
          <internalNodes>
            0 -1 39 1.5409470535814762e-02</internalNodes>
          <leafValues>
            -4.6563193202018738e-02 7.1492207050323486e-01</leafValues></_>
        <_>
          <internalNodes>
            0 -1 34 3.4102756530046463e-02</internalNodes>
          <leafValues>
            -5.6148391962051392e-01 3.4774601459503174e-01</leafValues></_>
        <_>
          <internalNodes>
            0 -1 53 -1.2849370017647743e-02</internalNodes>
          <leafValues>
            6.0587942600250244e-01 -2.8225064277648926e-01</leafValues></_>
        <_>
          <internalNodes>
            0 -1 8 9.5761660486459732e-03</internalNodes>
          <leafValues>
            -2.9717150330543518e-01 6.7469817399978638e-01</leafValues></_>
        <_>
          <internalNodes>
            0 -1 19 1.9976575858891010e-03</internalNodes>
          <leafValues>
            -4.2976939678192139e-01 4.4954606890678406e-01</leafValues></_>
        <_>
          <internalNodes>
            0 -1 55 1.5642544254660606e-02</internalNodes>
          <leafValues>
            -2.4782404303550720e-01 6.9231384992599487e-01</leafValues></_>
        <_>
          <internalNodes>
            0 -1 37 -1.1144561693072319e-02</internalNodes>
          <leafValues>
            5.0101137161254883e-01 -3.0620831251144409e-01</leafValues></_>
        <_>
          <internalNodes>
            0 -1 15 -6.2037725001573563e-03</internalNodes>
          <leafValues>
            5.6400954723358154e-01 -3.0403146147727966e-01</leafValues></_>
        <_>
          <internalNodes>
            0 -1 1 1.9282329827547073e-02</internalNodes>
          <leafValues>
            -4.1490313410758972e-01 4.6285489201545715e-01</leafValues></_>
        <_>
          <internalNodes>
            0 -1 66 9.0365093201398849e-03</internalNodes>
          <leafValues>
            -2.8682768344879150e-01 5.2106249332427979e-01</leafValues></_></weakClassifiers></_>
    <!-- stage 8 -->
    <_>
      <maxWeakCount>9</maxWeakCount>
      <stageThreshold>-1.0060946941375732e+00</stageThreshold>
      <weakClassifiers>
        <_>
          <internalNodes>
            0 -1 21 3.2841384410858154e-02</internalNodes>
          <leafValues>
            -4.3730887770652771e-01 5.7966762781143188e-01</leafValues></_>
        <_>
          <internalNodes>
            0 -1 14 1.4192777685821056e-02</internalNodes>
          <leafValues>
            -4.2126005887985229e-01 4.2358607053756714e-01</leafValues></_>
        <_>
          <internalNodes>
            0 -1 69 2.7630647644400597e-02</internalNodes>
          <leafValues>
            -5.8298426866531372e-01 2.9646956920623779e-01</leafValues></_>
        <_>
          <internalNodes>
            0 -1 42 3.0634744325652719e-04</internalNodes>
          <leafValues>
            -5.4327046871185303e-01 3.1454625725746155e-01</leafValues></_>
        <_>
          <internalNodes>
            0 -1 35 -4.7009522095322609e-03</internalNodes>
          <leafValues>
            -9.2805069684982300e-01 1.5341307222843170e-01</leafValues></_>
        <_>
          <internalNodes>
            0 -1 41 -3.8973384071141481e-03</internalNodes>
          <leafValues>
            -8.5316419601440430e-01 1.3374814391136169e-01</leafValues></_>
        <_>
          <internalNodes>
            0 -1 74 -4.6263355761766434e-03</internalNodes>
          <leafValues>
            4.6732902526855469e-01 -3.3860218524932861e-01</leafValues></_>
        <_>
          <internalNodes>
            0 -1 48 5.3588878363370895e-03</internalNodes>
          <leafValues>
            -4.1145327687263489e-01 3.7074524164199829e-01</leafValues></_>
        <_>
          <internalNodes>
            0 -1 5 4.3513037264347076e-02</internalNodes>
          <leafValues>
            -2.5009331107139587e-01 6.9754648208618164e-01</leafValues></_></weakClassifiers></_>
    <!-- stage 9 -->
    <_>
      <maxWeakCount>11</maxWeakCount>
      <stageThreshold>-7.2377306222915649e-01</stageThreshold>
      <weakClassifiers>
        <_>
          <internalNodes>
            0 -1 63 -1.3391865417361259e-02</internalNodes>
          <leafValues>
            -8.0000001192092896e-01 4.8033472895622253e-01</leafValues></_>
        <_>
          <internalNodes>
            0 -1 28 -1.4427265152335167e-02</internalNodes>
          <leafValues>
            4.3940690159797668e-01 -3.6075454950332642e-01</leafValues></_>
        <_>
          <internalNodes>
            0 -1 26 -5.2357109962031245e-04</internalNodes>
          <leafValues>
            3.1426787376403809e-01 -5.8987528085708618e-01</leafValues></_>
        <_>
          <internalNodes>
            0 -1 60 8.6538828909397125e-03</internalNodes>
          <leafValues>
            -3.5244658589363098e-01 4.5932063460350037e-01</leafValues></_>
        <_>
          <internalNodes>
            0 -1 25 2.9342360794544220e-03</internalNodes>
          <leafValues>
            -3.7171337008476257e-01 4.8897656798362732e-01</leafValues></_>
        <_>
          <internalNodes>
            0 -1 6 2.1381327882409096e-02</internalNodes>
          <leafValues>
            -3.5595318675041199e-01 4.7072824835777283e-01</leafValues></_>
        <_>
          <internalNodes>
            0 -1 22 -2.3458320647478104e-02</internalNodes>
          <leafValues>
            8.2666254043579102e-01 -2.2979724407196045e-01</leafValues></_>
        <_>
          <internalNodes>
            0 -1 9 2.6061845943331718e-02</internalNodes>
          <leafValues>
            -2.9371172189712524e-01 5.1991218328475952e-01</leafValues></_>
        <_>
          <internalNodes>
            0 -1 4 3.5965666174888611e-02</internalNodes>
          <leafValues>
            -2.7851065993309021e-01 6.0385048389434814e-01</leafValues></_>
        <_>
          <internalNodes>
            0 -1 61 1.3073085807263851e-02</internalNodes>
          <leafValues>
            -3.7442615628242493e-01 4.1271063685417175e-01</leafValues></_>
        <_>
          <internalNodes>
            0 -1 43 2.4880522396415472e-03</internalNodes>
          <leafValues>
            -3.3719787001609802e-01 4.1578269004821777e-01</leafValues></_></weakClassifiers></_></stages>
  <features>
    <_>
      <rects>
        <_>
          0 3 4 14 -1.</_>
        <_>
          2 3 2 14 2.</_></rects>
      <tilted>0</tilted></_>
    <_>
      <rects>
        <_>
          0 4 6 3 -1.</_>
        <_>
          2 4 2 3 3.</_></rects>
      <tilted>0</tilted></_>
    <_>
      <rects>
        <_>
          0 4 6 10 -1.</_>
        <_>
          2 4 2 10 3.</_></rects>
      <tilted>0</tilted></_>
    <_>
      <rects>
        <_>
          0 4 4 12 -1.</_>
        <_>
          2 4 2 12 2.</_></rects>
      <tilted>0</tilted></_>
    <_>
      <rects>
        <_>
          0 12 6 4 -1.</_>
        <_>
          2 12 2 4 3.</_></rects>
      <tilted>0</tilted></_>
    <_>
      <rects>
        <_>
          1 1 15 2 -1.</_>
        <_>
          6 1 5 2 3.</_></rects>
      <tilted>0</tilted></_>
    <_>
      <rects>
        <_>
          1 1 18 1 -1.</_>
        <_>
          7 1 6 1 3.</_></rects>
      <tilted>0</tilted></_>
    <_>
      <rects>
        <_>
          1 4 6 12 -1.</_>
        <_>
          3 4 2 12 3.</_></rects>
      <tilted>0</tilted></_>
    <_>
      <rects>
        <_>
          1 16 12 2 -1.</_>
        <_>
          1 16 6 1 2.</_>
        <_>
          7 17 6 1 2.</_></rects>
      <tilted>0</tilted></_>
    <_>
      <rects>
        <_>
          1 18 18 1 -1.</_>
        <_>
          7 18 6 1 3.</_></rects>
      <tilted>0</tilted></_>
    <_>
      <rects>
        <_>
          2 1 4 6 -1.</_>
        <_>
          2 1 2 3 2.</_>
        <_>
          4 4 2 3 2.</_></rects>
      <tilted>0</tilted></_>
    <_>
      <rects>
        <_>
          2 1 6 4 -1.</_>
        <_>
          2 1 3 2 2.</_>
        <_>
          5 3 3 2 2.</_></rects>
      <tilted>0</tilted></_>
    <_>
      <rects>
        <_>
          2 9 2 2 -1.</_>
        <_>
          3 9 1 2 2.</_></rects>
      <tilted>0</tilted></_>
    <_>
      <rects>
        <_>
          2 11 12 4 -1.</_>
        <_>
          6 11 4 4 3.</_></rects>
      <tilted>0</tilted></_>
    <_>
      <rects>
        <_>
          3 0 13 2 -1.</_>
        <_>
          3 1 13 1 2.</_></rects>
      <tilted>0</tilted></_>
    <_>
      <rects>
        <_>
          3 11 2 4 -1.</_>
        <_>
          4 11 1 4 2.</_></rects>
      <tilted>0</tilted></_>
    <_>
      <rects>
        <_>
          4 0 10 2 -1.</_>
        <_>
          4 1 10 1 2.</_></rects>
      <tilted>0</tilted></_>
    <_>
      <rects>
        <_>
          4 1 8 4 -1.</_>
        <_>
          4 1 4 2 2.</_>
        <_>
          8 3 4 2 2.</_></rects>
      <tilted>0</tilted></_>
    <_>
      <rects>
        <_>
          4 3 4 4 -1.</_>
        <_>
          4 3 2 2 2.</_>
        <_>
          6 5 2 2 2.</_></rects>
      <tilted>0</tilted></_>
    <_>
      <rects>
        <_>
          4 5 4 2 -1.</_>
        <_>
          4 5 2 1 2.</_>
        <_>
          6 6 2 1 2.</_></rects>
      <tilted>0</tilted></_>
    <_>
      <rects>
        <_>
          4 9 9 10 -1.</_>
        <_>
          4 14 9 5 2.</_></rects>
      <tilted>0</tilted></_>
    <_>
      <rects>
        <_>
          4 11 15 9 -1.</_>
        <_>
          4 14 15 3 3.</_></rects>
      <tilted>0</tilted></_>
    <_>
      <rects>
        <_>
          4 18 12 1 -1.</_>
        <_>
          8 18 4 1 3.</_></rects>
      <tilted>0</tilted></_>
    <_>
      <rects>
        <_>
          5 0 11 2 -1.</_>
        <_>
          5 1 11 1 2.</_></rects>
      <tilted>0</tilted></_>
    <_>
      <rects>
        <_>
          5 1 8 4 -1.</_>
        <_>
          5 3 8 2 2.</_></rects>
      <tilted>0</tilted></_>
    <_>
      <rects>
        <_>
          5 3 2 4 -1.</_>
        <_>
          5 3 1 2 2.</_>
        <_>
          6 5 1 2 2.</_></rects>
      <tilted>0</tilted></_>
    <_>
      <rects>
        <_>
          5 4 2 3 -1.</_>
        <_>
          5 5 2 1 3.</_></rects>
      <tilted>0</tilted></_>
    <_>
      <rects>
        <_>
          5 4 4 2 -1.</_>
        <_>
          5 4 2 1 2.</_>
        <_>
          7 5 2 1 2.</_></rects>
      <tilted>0</tilted></_>
    <_>
      <rects>
        <_>
          5 5 5 6 -1.</_>
        <_>
          5 8 5 3 2.</_></rects>
      <tilted>0</tilted></_>
    <_>
      <rects>
        <_>
          5 16 6 2 -1.</_>
        <_>
          5 16 3 1 2.</_>
        <_>
          8 17 3 1 2.</_></rects>
      <tilted>0</tilted></_>
    <_>
      <rects>
        <_>
          6 0 8 2 -1.</_>
        <_>
          6 1 8 1 2.</_></rects>
      <tilted>0</tilted></_>
    <_>
      <rects>
        <_>
          6 0 9 2 -1.</_>
        <_>
          6 1 9 1 2.</_></rects>
      <tilted>0</tilted></_>
    <_>
      <rects>
        <_>
          6 3 2 4 -1.</_>
        <_>
          6 3 1 2 2.</_>
        <_>
          7 5 1 2 2.</_></rects>
      <tilted>0</tilted></_>
    <_>
      <rects>
        <_>
          6 3 4 2 -1.</_>
        <_>
          6 3 2 1 2.</_>
        <_>
          8 4 2 1 2.</_></rects>
      <tilted>0</tilted></_>
    <_>
      <rects>
        <_>
          6 3 12 11 -1.</_>
        <_>
          12 3 6 11 2.</_></rects>
      <tilted>0</tilted></_>
    <_>
      <rects>
        <_>
          6 4 3 2 -1.</_>
        <_>
          7 4 1 2 3.</_></rects>
      <tilted>0</tilted></_>
    <_>
      <rects>
        <_>
          6 10 10 8 -1.</_>
        <_>
          6 14 10 4 2.</_></rects>
      <tilted>0</tilted></_>
    <_>
      <rects>
        <_>
          6 18 7 2 -1.</_>
        <_>
          6 19 7 1 2.</_></rects>
      <tilted>0</tilted></_>
    <_>
      <rects>
        <_>
          6 18 11 2 -1.</_>
        <_>
          6 19 11 1 2.</_></rects>
      <tilted>0</tilted></_>
    <_>
      <rects>
        <_>
          7 0 7 2 -1.</_>
        <_>
          7 1 7 1 2.</_></rects>
      <tilted>0</tilted></_>
    <_>
      <rects>
        <_>
          7 1 2 6 -1.</_>
        <_>
          7 3 2 2 3.</_></rects>
      <tilted>0</tilted></_>
    <_>
      <rects>
        <_>
          7 2 3 2 -1.</_>
        <_>
          8 2 1 2 3.</_></rects>
      <tilted>0</tilted></_>
    <_>
      <rects>
        <_>
          7 3 2 2 -1.</_>
        <_>
          7 3 1 1 2.</_>
        <_>
          8 4 1 1 2.</_></rects>
      <tilted>0</tilted></_>
    <_>
      <rects>
        <_>
          7 3 4 2 -1.</_>
        <_>
          7 3 2 1 2.</_>
        <_>
          9 4 2 1 2.</_></rects>
      <tilted>0</tilted></_>
    <_>
      <rects>
        <_>
          7 3 10 4 -1.</_>
        <_>
          7 3 5 2 2.</_>
        <_>
          12 5 5 2 2.</_></rects>
      <tilted>0</tilted></_>
    <_>
      <rects>
        <_>
          7 11 11 9 -1.</_>
        <_>
          7 14 11 3 3.</_></rects>
      <tilted>0</tilted></_>
    <_>
      <rects>
        <_>
          7 17 7 3 -1.</_>
        <_>
          7 18 7 1 3.</_></rects>
      <tilted>0</tilted></_>
    <_>
      <rects>
        <_>
          7 18 6 2 -1.</_>
        <_>
          7 19 6 1 2.</_></rects>
      <tilted>0</tilted></_>
    <_>
      <rects>
        <_>
          8 2 6 2 -1.</_>
        <_>
          11 2 3 2 2.</_></rects>
      <tilted>0</tilted></_>
    <_>
      <rects>
        <_>
          8 2 12 1 -1.</_>
        <_>
          14 2 6 1 2.</_></rects>
      <tilted>0</tilted></_>
    <_>
      <rects>
        <_>
          8 3 10 6 -1.</_>
        <_>
          13 3 5 6 2.</_></rects>
      <tilted>0</tilted></_>
    <_>
      <rects>
        <_>
          8 8 6 6 -1.</_>
        <_>
          11 8 3 6 2.</_></rects>
      <tilted>0</tilted></_>
    <_>
      <rects>
        <_>
          8 16 3 2 -1.</_>
        <_>
          8 17 3 1 2.</_></rects>
      <tilted>0</tilted></_>
    <_>
      <rects>
        <_>
          8 16 4 3 -1.</_>
        <_>
          8 17 4 1 3.</_></rects>
      <tilted>0</tilted></_>
    <_>
      <rects>
        <_>
          8 17 4 3 -1.</_>
        <_>
          8 18 4 1 3.</_></rects>
      <tilted>0</tilted></_>
    <_>
      <rects>
        <_>
          9 15 6 4 -1.</_>
        <_>
          9 15 3 2 2.</_>
        <_>
          12 17 3 2 2.</_></rects>
      <tilted>0</tilted></_>
    <_>
      <rects>
        <_>
          9 17 2 3 -1.</_>
        <_>
          9 18 2 1 3.</_></rects>
      <tilted>0</tilted></_>
    <_>
      <rects>
        <_>
          9 17 3 3 -1.</_>
        <_>
          9 18 3 1 3.</_></rects>
      <tilted>0</tilted></_>
    <_>
      <rects>
        <_>
          10 2 1 3 -1.</_>
        <_>
          10 3 1 1 3.</_></rects>
      <tilted>0</tilted></_>
    <_>
      <rects>
        <_>
          10 11 8 4 -1.</_>
        <_>
          10 13 8 2 2.</_></rects>
      <tilted>0</tilted></_>
    <_>
      <rects>
        <_>
          10 17 3 3 -1.</_>
        <_>
          10 18 3 1 3.</_></rects>
      <tilted>0</tilted></_>
    <_>
      <rects>
        <_>
          11 0 5 6 -1.</_>
        <_>
          11 2 5 2 3.</_></rects>
      <tilted>0</tilted></_>
    <_>
      <rects>
        <_>
          11 1 3 18 -1.</_>
        <_>
          11 7 3 6 3.</_></rects>
      <tilted>0</tilted></_>
    <_>
      <rects>
        <_>
          11 4 4 14 -1.</_>
        <_>
          11 11 4 7 2.</_></rects>
      <tilted>0</tilted></_>
    <_>
      <rects>
        <_>
          12 4 6 2 -1.</_>
        <_>
          15 4 3 2 2.</_></rects>
      <tilted>0</tilted></_>
    <_>
      <rects>
        <_>
          12 6 4 13 -1.</_>
        <_>
          14 6 2 13 2.</_></rects>
      <tilted>0</tilted></_>
    <_>
      <rects>
        <_>
          13 6 2 6 -1.</_>
        <_>
          13 8 2 2 3.</_></rects>
      <tilted>0</tilted></_>
    <_>
      <rects>
        <_>
          14 4 6 12 -1.</_>
        <_>
          16 4 2 12 3.</_></rects>
      <tilted>0</tilted></_>
    <_>
      <rects>
        <_>
          14 4 6 13 -1.</_>
        <_>
          16 4 2 13 3.</_></rects>
      <tilted>0</tilted></_>
    <_>
      <rects>
        <_>
          14 5 6 11 -1.</_>
        <_>
          16 5 2 11 3.</_></rects>
      <tilted>0</tilted></_>
    <_>
      <rects>
        <_>
          15 9 3 4 -1.</_>
        <_>
          16 9 1 4 3.</_></rects>
      <tilted>0</tilted></_>
    <_>
      <rects>
        <_>
          16 3 4 15 -1.</_>
        <_>
          18 3 2 15 2.</_></rects>
      <tilted>0</tilted></_>
    <_>
      <rects>
        <_>
          16 4 4 12 -1.</_>
        <_>
          18 4 2 12 2.</_></rects>
      <tilted>0</tilted></_>
    <_>
      <rects>
        <_>
          16 4 4 13 -1.</_>
        <_>
          18 4 2 13 2.</_></rects>
      <tilted>0</tilted></_>
    <_>
      <rects>
        <_>
          16 5 2 6 -1.</_>
        <_>
          16 5 1 3 2.</_>
        <_>
          17 8 1 3 2.</_></rects>
      <tilted>0</tilted></_></features></cascade>
</opencv_storage>
